<?xml version="1.0"?>
<opencv_storage>
<!-- Created using Computer Vision System Toolbox(tm) for MATLAB(R) -->
<!-- Version 9.5.0.944444 (R2018b) -->
<!-- Compatible with OpenCV 3.4 -->
<cascade>
  <stageType>BOOST</stageType>
  <featureType>HOG</featureType>
  <height>89</height>
  <width>32</width>
  <stageParams>
    <boostType>GAB</boostType>
    <minHitRate>9.9500000476837158e-01</minHitRate>
    <maxFalseAlarm>5.0000000745058060e-02</maxFalseAlarm>
    <weightTrimRate>9.4999999999999996e-01</weightTrimRate>
    <maxDepth>1</maxDepth>
    <maxWeakCount>100</maxWeakCount></stageParams>
  <featureParams>
    <maxCatCount>0</maxCatCount>
    <featSize>36</featSize></featureParams>
  <stageNum>5</stageNum>
  <stages>
    <!-- stage 0 -->
    <_>
      <maxWeakCount>3</maxWeakCount>
      <stageThreshold>4.3075105547904968e-01</stageThreshold>
      <weakClassifiers>
        <_>
          <internalNodes>
            0 -1 13 9.1851400211453438e-03</internalNodes>
          <leafValues>
            6.8421053886413574e-01 -9.3750000000000000e-01</leafValues></_>
        <_>
          <internalNodes>
            0 -1 3 5.1559522747993469e-02</internalNodes>
          <leafValues>
            -9.4140756130218506e-01 7.6145577430725098e-01</leafValues></_>
        <_>
          <internalNodes>
            0 -1 16 2.0089846104383469e-02</internalNodes>
          <leafValues>
            6.8794810771942139e-01 -9.4535028934478760e-01</leafValues></_></weakClassifiers></_>
    <!-- stage 1 -->
    <_>
      <maxWeakCount>4</maxWeakCount>
      <stageThreshold>-2.1793815493583679e-01</stageThreshold>
      <weakClassifiers>
        <_>
          <internalNodes>
            0 -1 1 4.8775508999824524e-02</internalNodes>
          <leafValues>
            -9.3846154212951660e-01 7.2972971200942993e-01</leafValues></_>
        <_>
          <internalNodes>
            0 -1 9 7.6018333435058594e-02</internalNodes>
          <leafValues>
            -8.6105030775070190e-01 7.3750245571136475e-01</leafValues></_>
        <_>
          <internalNodes>
            0 -1 11 5.1246542483568192e-02</internalNodes>
          <leafValues>
            -8.3076351881027222e-01 8.3278059959411621e-01</leafValues></_>
        <_>
          <internalNodes>
            0 -1 12 7.3585018515586853e-02</internalNodes>
          <leafValues>
            -8.1421983242034912e-01 8.1378448009490967e-01</leafValues></_></weakClassifiers></_>
    <!-- stage 2 -->
    <_>
      <maxWeakCount>3</maxWeakCount>
      <stageThreshold>5.1728487014770508e-01</stageThreshold>
      <weakClassifiers>
        <_>
          <internalNodes>
            0 -1 15 2.5099497288465500e-02</internalNodes>
          <leafValues>
            -9.6923077106475830e-01 7.8378379344940186e-01</leafValues></_>
        <_>
          <internalNodes>
            0 -1 6 2.5469381362199783e-02</internalNodes>
          <leafValues>
            -9.7038424015045166e-01 7.3317199945449829e-01</leafValues></_>
        <_>
          <internalNodes>
            0 -1 2 5.4966524243354797e-02</internalNodes>
          <leafValues>
            -8.4701371192932129e-01 7.5334364175796509e-01</leafValues></_></weakClassifiers></_>
    <!-- stage 3 -->
    <_>
      <maxWeakCount>5</maxWeakCount>
      <stageThreshold>2.7137368917465210e-01</stageThreshold>
      <weakClassifiers>
        <_>
          <internalNodes>
            0 -1 10 3.5913478583097458e-02</internalNodes>
          <leafValues>
            -9.3442624807357788e-01 5.6097561120986938e-01</leafValues></_>
        <_>
          <internalNodes>
            0 -1 14 7.3506236076354980e-03</internalNodes>
          <leafValues>
            6.7838245630264282e-01 -8.4932261705398560e-01</leafValues></_>
        <_>
          <internalNodes>
            0 -1 8 1.5327831730246544e-02</internalNodes>
          <leafValues>
            6.1304783821105957e-01 -9.1180783510208130e-01</leafValues></_>
        <_>
          <internalNodes>
            0 -1 17 2.8691485524177551e-02</internalNodes>
          <leafValues>
            -7.5148355960845947e-01 8.3520048856735229e-01</leafValues></_>
        <_>
          <internalNodes>
            0 -1 5 1.7390202730894089e-02</internalNodes>
          <leafValues>
            -9.2083084583282471e-01 7.5922161340713501e-01</leafValues></_></weakClassifiers></_>
    <!-- stage 4 -->
    <_>
      <maxWeakCount>4</maxWeakCount>
      <stageThreshold>7.6638782024383545e-01</stageThreshold>
      <weakClassifiers>
        <_>
          <internalNodes>
            0 -1 0 2.0836029201745987e-02</internalNodes>
          <leafValues>
            -9.3103450536727905e-01 4.5454546809196472e-01</leafValues></_>
        <_>
          <internalNodes>
            0 -1 7 1.7471816390752792e-02</internalNodes>
          <leafValues>
            -8.6496955156326294e-01 5.8890938758850098e-01</leafValues></_>
        <_>
          <internalNodes>
            0 -1 18 1.5020746737718582e-02</internalNodes>
          <leafValues>
            -1. 5.2790713310241699e-01</leafValues></_>
        <_>
          <internalNodes>
            0 -1 4 2.5873316451907158e-02</internalNodes>
          <leafValues>
            -8.0497413873672485e-01 7.0196753740310669e-01</leafValues></_></weakClassifiers></_></stages>
  <features>
    <_>
      <rect>
        0 32 8 8 8</rect></_>
    <_>
      <rect>
        0 60 8 8 26</rect></_>
    <_>
      <rect>
        4 72 8 8 30</rect></_>
    <_>
      <rect>
        4 72 8 8 31</rect></_>
    <_>
      <rect>
        8 4 8 8 20</rect></_>
    <_>
      <rect>
        8 24 8 8 21</rect></_>
    <_>
      <rect>
        8 68 8 8 12</rect></_>
    <_>
      <rect>
        12 24 8 8 6</rect></_>
    <_>
      <rect>
        16 0 8 8 4</rect></_>
    <_>
      <rect>
        16 64 8 8 35</rect></_>
    <_>
      <rect>
        16 72 8 8 17</rect></_>
    <_>
      <rect>
        0 40 8 16 8</rect></_>
    <_>
      <rect>
        0 40 8 16 13</rect></_>
    <_>
      <rect>
        4 52 8 16 35</rect></_>
    <_>
      <rect>
        8 36 8 16 26</rect></_>
    <_>
      <rect>
        8 52 8 16 23</rect></_>
    <_>
      <rect>
        12 40 8 16 8</rect></_>
    <_>
      <rect>
        16 44 8 16 9</rect></_>
    <_>
      <rect>
        0 28 16 16 26</rect></_></features></cascade>
</opencv_storage>
